34 64
0 -0.001478 -0.004382 0.000245 -0.007569 -0.006209 0.004529 -0.002949 -0.002226 -0.001829 0.000264 0.006443 0.000529 0.001409 -0.000279 0.006813 -0.003427 0.005404 -0.001235 -0.004344 -0.001933 -0.003851 -0.004703 -0.000893 0.002229 -0.007048 -0.001171 0.002043 -0.005793 -0.006461 -0.006901 0.004066 0.005445 0.000827 -0.003599 0.006363 -0.003682 0.006125 0.003071 0.004895 -0.005375 -0.006488 -0.004437 -0.004532 0.004399 -0.000756 0.006681 -0.001376 -0.004283 -0.005774 0.002837 -0.004321 -0.001670 -0.004461 -0.007005 -0.002478 -0.001732 -0.006088 0.007087 -0.007893 0.003285 0.001064 -0.006536 0.000587 0.005204
32 -0.003657 -0.005944 -0.007604 0.000410 0.000661 0.000847 0.004861 -0.001534 -0.003656 0.001617 -0.002034 0.004074 -0.002837 0.002107 0.000825 0.004529 0.002271 -0.002520 -0.007324 0.000722 -0.000148 0.005559 -0.006204 -0.003831 -0.006241 -0.002291 -0.003565 0.007235 0.002845 -0.004305 -0.002138 -0.000759 0.007492 0.004767 -0.004599 0.000513 0.005936 0.006955 -0.001547 -0.004967 -0.005543 0.003061 -0.001009 -0.001337 -0.006485 -0.002333 0.005751 0.003223 -0.001167 -0.006711 -0.000841 0.002657 -0.002595 0.003681 -0.006089 -0.005016 -0.003062 -0.000502 -0.000198 -0.001900 0.002024 0.000651 -0.006070 0.007024
2 0.006017 -0.001165 -0.001458 -0.002130 -0.002159 0.000450 0.003152 0.004615 -0.006925 -0.000920 -0.002416 0.004210 0.004141 -0.005008 -0.001286 -0.005864 -0.004034 0.004123 -0.001204 -0.000521 0.001612 0.001740 0.005698 -0.000641 -0.005863 -0.001552 -0.003533 0.000916 0.005056 0.002884 0.005601 -0.002968 -0.006425 0.006478 -0.006638 0.004512 0.001145 -0.005716 0.003122 -0.002256 0.003374 0.005281 0.003564 -0.001277 -0.004848 -0.001492 -0.004132 -0.002355 0.002976 -0.004020 0.001506 -0.006409 0.003419 0.007448 -0.007771 -0.000213 0.004669 0.006682 -0.004503 0.007114 -0.004456 0.003997 -0.001157 -0.005594
1 -0.007735 -0.007822 0.007283 -0.005410 0.003365 -0.007586 -0.001277 0.005482 0.006237 0.000481 -0.004625 -0.001312 0.004407 -0.003295 -0.003809 -0.004791 0.004370 -0.003413 0.007288 -0.003932 0.003145 -0.000696 0.001475 0.002896 0.001561 0.002091 0.004725 0.007160 0.003035 -0.004113 -0.007478 0.004661 -0.000607 0.001778 -0.003543 -0.006159 -0.007466 -0.003456 0.007058 -0.007892 -0.005415 -0.005678 0.004998 0.004518 -0.002682 -0.005150 -0.004709 0.000741 0.006950 0.006086 -0.006634 0.006820 -0.002718 0.007583 -0.006855 0.001649 -0.000786 0.007078 -0.005385 0.003488 0.003799 -0.007662 -0.005736 0.000111
6 0.002071 -0.002099 0.001781 0.007119 0.000813 0.002474 0.003869 0.004858 -0.000926 0.000847 0.002634 -0.001479 -0.002357 -0.003705 0.004330 0.000085 -0.002140 -0.005418 0.003582 -0.005130 -0.002541 -0.004866 -0.002067 -0.006413 0.005680 -0.004303 0.002477 -0.007220 0.000801 0.006628 0.001066 -0.005865 0.004189 -0.001384 0.002266 0.000217 0.001576 0.006568 -0.007146 -0.007913 -0.003720 0.004227 0.007282 -0.004811 -0.007268 0.002579 0.004855 -0.007121 0.007182 0.006042 -0.000536 0.004388 -0.006938 0.000462 0.005665 -0.004099 -0.000529 -0.003629 0.005075 -0.006887 0.007704 0.004535 0.000332 0.000442
8 0.001113 -0.007071 0.004114 0.001666 -0.005125 0.002709 0.003933 0.001555 -0.000424 0.005822 -0.003446 0.000121 -0.004891 0.000063 0.006135 -0.005038 0.004235 0.000309 0.007290 0.004839 -0.002278 -0.000278 -0.001175 -0.007169 0.002211 0.007766 -0.000481 0.005490 -0.003369 0.004677 -0.001910 0.000977 0.001846 0.004753 -0.002555 -0.002465 0.006714 -0.001808 0.006582 0.007182 -0.002274 0.000395 -0.005471 0.005556 0.001940 0.005634 -0.005102 -0.001160 -0.003164 0.004103 -0.004195 -0.004533 0.007801 0.004731 -0.005982 0.000148 -0.007150 -0.002494 -0.003871 -0.004531 -0.004450 -0.006505 0.001524 0.002476
23 0.001430 0.005739 -0.007410 0.002426 -0.001234 0.005407 -0.001935 0.006405 0.003486 -0.003135 -0.003118 0.000782 0.001462 -0.005832 -0.005631 0.004408 -0.000939 0.005753 0.003496 0.007430 -0.002458 -0.003012 -0.006573 0.005313 0.001853 -0.001423 -0.006705 -0.006118 -0.007027 0.004659 -0.001166 0.002166 -0.001486 -0.000403 -0.006771 -0.004855 0.003213 -0.004877 -0.005671 0.001032 -0.001348 0.000716 0.003004 0.003389 0.004533 -0.002912 -0.003074 0.006255 -0.004586 -0.001478 0.002238 -0.002100 0.005504 -0.006395 -0.000446 -0.006834 -0.004224 -0.000931 -0.000469 -0.007070 0.000871 -0.003361 0.005865 0.001890
33 -0.000377 -0.004888 0.001485 0.006722 0.006108 -0.006825 -0.001620 0.007424 0.004130 -0.000649 0.004091 -0.000117 0.000802 -0.005852 0.006346 0.003865 -0.002170 0.005373 -0.006260 -0.000678 0.006193 -0.000315 0.005486 -0.005679 -0.005026 -0.000454 -0.004648 0.000252 0.004001 0.003496 -0.001208 0.006583 -0.000721 0.007137 -0.007096 -0.005646 -0.000892 -0.000318 -0.007124 0.006548 -0.002791 0.003379 0.003907 -0.004599 -0.003129 0.003871 -0.002133 -0.005706 -0.005916 -0.000953 -0.002328 0.006722 0.004490 -0.003709 -0.007829 0.002839 -0.004276 0.002389 0.005992 0.004791 0.007629 -0.007821 -0.004844 0.003788
3 -0.006910 0.001454 0.007069 0.001260 0.002194 -0.000567 0.004195 -0.000033 -0.007365 -0.002822 0.003380 -0.005689 -0.007555 -0.007575 -0.003391 -0.005470 0.007297 -0.005694 -0.001334 -0.004292 -0.006244 0.002926 -0.001782 0.007436 0.007390 -0.003232 -0.000177 0.005446 0.007856 0.007049 -0.004055 -0.004613 -0.006809 0.007076 -0.002120 -0.006105 0.002368 0.004785 0.002508 0.004154 0.001352 -0.007575 0.001943 0.006594 -0.003707 -0.001359 0.005266 -0.005294 -0.007810 0.005391 0.006693 -0.002815 -0.007402 0.002052 -0.004985 -0.004733 -0.003855 0.002151 -0.003596 0.007245 -0.007038 0.003493 -0.002161 0.007278
5 0.001171 -0.006912 -0.007826 -0.000199 0.005793 -0.002444 0.006854 -0.006710 0.007335 -0.005260 0.005976 0.005880 -0.005591 0.001782 0.004279 -0.006786 -0.003966 -0.006255 -0.002413 0.003960 0.004333 0.006273 -0.007056 0.007840 0.002735 -0.005554 -0.001285 -0.006524 -0.002268 -0.001680 -0.004360 -0.002464 -0.004405 0.003037 0.004523 -0.005928 0.001824 0.003172 -0.001889 0.000307 0.006703 -0.001200 -0.004178 -0.000602 -0.005000 0.000860 0.001047 -0.001739 -0.000171 -0.003720 -0.001653 0.006451 0.006410 -0.007036 0.004511 -0.004536 0.004409 -0.002470 0.005241 -0.007363 -0.002899 -0.005019 0.004687 0.005653
7 0.007231 0.000589 -0.006923 -0.001839 -0.006190 0.005150 0.001578 0.002015 0.007265 -0.001585 -0.003493 0.001320 0.001745 -0.007867 0.005591 0.001267 0.001693 -0.000748 -0.005579 -0.001408 0.002045 -0.003726 0.000926 0.005929 0.006384 -0.005539 -0.007278 -0.004035 -0.004750 -0.002844 0.005250 0.006505 -0.004947 -0.006748 -0.005143 -0.000841 -0.004432 -0.007172 -0.002663 -0.004578 -0.007541 0.002460 0.002718 0.004669 0.000034 0.004263 0.002695 -0.000146 0.005984 0.001428 -0.004891 0.005900 -0.000120 0.006773 -0.005419 0.004383 0.000932 -0.004897 0.005705 0.007283 0.002825 0.000434 0.001681 0.004078
4 -0.000232 0.007378 0.000096 0.003263 0.004755 -0.005174 -0.006897 0.007763 0.001109 -0.004385 0.006914 0.001942 0.005391 -0.002091 -0.002006 -0.001819 0.001604 -0.004826 0.002247 0.004714 0.002772 -0.001598 -0.004733 -0.002889 0.003730 0.001742 -0.005103 0.004086 0.006560 -0.003180 -0.003884 -0.005129 -0.001031 -0.000871 -0.003394 -0.002266 0.004967 0.004547 0.002830 0.003808 0.002437 -0.006375 0.006507 0.006863 0.003254 -0.006326 -0.001855 -0.006315 -0.005198 -0.004945 0.005684 -0.006095 0.001697 0.002838 -0.004059 0.002844 0.003780 0.001066 0.003287 -0.003222 0.007590 -0.004193 0.002991 0.000752
31 0.003514 0.002066 0.005884 0.005016 -0.001736 -0.006607 -0.001344 -0.007168 -0.006901 0.001854 0.006280 0.007873 0.006976 -0.006880 0.000108 -0.007043 -0.007627 0.003139 0.003113 -0.000320 0.001787 -0.003196 -0.005356 0.005961 0.002523 0.002061 0.004562 0.007210 0.000112 0.000430 -0.004946 0.007452 -0.007364 0.005790 0.004247 0.005746 -0.001480 -0.001193 0.006842 -0.007772 0.001052 0.004965 0.000481 -0.003540 -0.003215 -0.000064 -0.005402 -0.006123 -0.002420 0.003820 -0.006778 0.006048 0.000596 -0.003445 0.001753 -0.004031 0.002776 -0.003947 -0.007542 -0.006957 0.006451 -0.002450 -0.006599 -0.006253
13 0.005411 0.000665 0.002676 -0.005478 -0.002327 -0.001417 0.002329 -0.005114 0.001869 0.005424 -0.004285 -0.005046 0.003452 -0.006676 0.002306 -0.000779 -0.006054 -0.002712 -0.002609 -0.005817 0.007452 -0.000299 -0.007202 0.002033 -0.007359 -0.000140 0.007189 0.005149 0.001878 0.000208 -0.004799 0.004233 -0.002177 -0.004377 0.000346 -0.004761 0.007291 0.007539 0.001153 -0.001658 0.004021 0.000613 0.000189 0.003590 0.000029 0.006677 0.002315 0.001592 -0.003900 0.004965 -0.005223 0.005467 0.004245 0.005132 -0.005538 -0.005027 -0.006400 -0.005152 0.004826 -0.005223 0.004942 0.000970 -0.004546 -0.005648
29 -0.001836 -0.000331 -0.004461 -0.003108 0.003442 -0.004398 -0.000264 -0.006355 -0.000082 0.002621 0.003350 0.007045 -0.003864 -0.002814 0.000094 -0.004518 -0.007020 -0.007148 0.004332 -0.000920 0.004075 -0.003405 -0.006946 -0.001861 -0.005781 -0.003557 -0.000635 -0.003676 0.005952 0.004636 0.005546 -0.002196 0.004783 -0.000822 -0.005664 0.001787 0.007129 0.002960 0.003841 -0.007421 0.007068 0.004536 -0.007550 -0.007322 0.004361 0.007728 -0.003407 -0.001411 -0.004872 0.000643 -0.002352 -0.001558 -0.004509 0.000116 -0.007886 0.007788 0.007771 0.005209 0.003091 0.003208 0.002568 -0.006639 -0.004899 0.000346
27 0.004253 -0.007686 -0.005208 -0.006410 0.001269 0.002954 0.003298 0.006821 -0.005480 0.001740 -0.003885 -0.003446 -0.002392 0.006550 -0.000895 -0.004734 0.007091 -0.004609 0.000155 -0.007536 0.005924 0.003369 0.002816 0.007132 0.000656 -0.006510 -0.007185 0.006433 -0.003854 0.002853 0.001171 -0.006139 -0.003153 -0.005183 0.004265 -0.004802 -0.003721 -0.000825 -0.002768 -0.005715 -0.005885 -0.000063 -0.001670 0.001616 0.002434 0.005681 0.007582 -0.001049 0.000484 0.004634 0.005088 0.004600 -0.005022 0.006790 -0.001586 -0.006090 -0.001421 0.002430 0.006565 0.003390 -0.005016 0.007520 -0.004110 -0.000526
25 -0.005581 -0.002810 -0.004630 -0.002728 -0.006948 -0.002009 -0.004136 -0.005631 0.007267 -0.001051 -0.002902 -0.004502 0.000164 0.005955 -0.001649 -0.006622 0.004238 -0.004020 0.004513 0.006909 0.005885 -0.002178 0.005499 0.005240 0.002147 -0.006738 0.002165 -0.002275 -0.007401 0.004111 0.003919 0.000700 0.001487 -0.006628 -0.007106 0.002994 -0.006293 0.006144 -0.004574 -0.003884 -0.006380 0.004323 -0.004175 -0.006212 0.004373 0.007120 0.003226 0.006648 0.005462 0.000285 -0.007480 0.005458 0.004027 0.002952 -0.006685 -0.002955 0.005228 -0.007515 -0.001835 0.006380 -0.003472 0.004781 0.004088 -0.002935
24 0.004444 0.003087 0.005817 0.007223 0.002179 -0.001630 -0.000666 0.001618 0.002428 0.002930 0.006816 -0.000518 0.005646 -0.006353 -0.000545 -0.003615 -0.002722 -0.001467 0.001939 -0.001937 0.001625 0.002175 0.000391 0.006793 0.002519 0.006053 -0.002028 -0.004842 -0.001211 0.004818 -0.006737 0.001183 -0.007280 -0.002544 0.002372 -0.002112 0.007832 -0.004237 -0.000611 -0.004822 0.002052 0.007104 -0.000308 0.003687 -0.001318 0.003304 -0.005254 0.006320 0.002151 -0.004941 0.007265 0.002137 -0.006612 0.007026 0.006200 0.006560 0.005978 0.000997 -0.001938 -0.003119 -0.000363 -0.001179 0.002442 0.000805
10 0.001612 -0.000837 -0.004048 0.001702 0.003354 0.007451 0.004475 -0.000370 0.006533 -0.005567 0.004289 0.004831 -0.004897 0.005923 -0.002988 0.006128 0.002602 0.005140 -0.004156 0.001806 0.003915 -0.001107 0.001307 0.007427 -0.003204 -0.001795 0.002951 -0.005347 -0.002125 -0.004854 -0.006120 -0.006516 0.003066 0.005880 -0.006217 -0.001374 0.005423 -0.006841 -0.005782 -0.006627 -0.004465 -0.002668 0.006590 0.006572 0.006302 0.007702 0.007637 -0.001759 0.007791 -0.006139 0.000717 0.002300 0.006215 -0.003264 -0.002519 0.004708 0.003342 -0.007016 -0.006899 0.003403 0.002796 -0.000357 -0.007401 0.002012
19 0.006815 -0.004017 0.006779 -0.003960 -0.002012 0.002004 -0.001893 -0.004692 0.004098 0.000712 -0.006357 0.004917 -0.002201 0.001681 -0.002585 0.002046 -0.006168 -0.006583 0.005068 0.007071 0.002336 -0.006520 0.000495 0.003675 0.000069 0.006424 -0.002191 0.000879 -0.002524 -0.002729 0.000213 0.002582 0.002279 -0.007601 -0.002207 -0.000327 -0.007596 0.005052 0.005279 0.002122 0.000538 -0.001298 -0.000141 -0.002736 0.006170 0.003322 0.005079 -0.005399 -0.001773 0.002904 -0.003036 -0.001341 -0.006719 -0.003569 0.006891 0.004725 -0.005981 0.003851 0.007479 -0.002480 -0.001127 -0.004701 0.006117 0.005035
21 -0.006290 0.007171 0.000491 -0.007269 -0.007097 -0.001490 -0.002065 -0.005225 0.001018 0.007446 0.000815 0.000657 0.001385 -0.006845 -0.000713 0.000943 0.000335 -0.000005 0.004185 0.001455 0.004749 -0.000861 -0.002475 0.003904 0.000941 -0.002479 0.003027 0.000973 0.000660 -0.000273 0.005684 -0.002064 0.000313 0.003428 -0.006299 -0.004861 -0.001677 0.007344 0.005456 0.002533 -0.005884 0.007273 -0.005516 -0.004695 -0.006341 0.002516 0.001422 0.001941 0.005820 -0.001464 0.006458 0.004056 0.005451 -0.004961 -0.002360 0.003329 0.000654 -0.006689 -0.007392 0.006189 -0.004380 0.000207 0.001407 0.005851
17 -0.000805 -0.001858 0.001563 0.005045 -0.007587 -0.005245 0.004436 0.003987 0.007311 0.006428 0.002965 0.007797 0.003695 0.004525 -0.004043 0.005866 0.000159 -0.007505 -0.003967 0.004580 -0.000314 -0.007063 0.005446 -0.005035 0.006034 0.004694 -0.002317 -0.000289 0.003683 0.006034 0.001954 0.000489 0.004240 -0.001633 -0.003606 -0.006311 0.004941 0.003475 -0.001698 0.004137 -0.001954 -0.006978 -0.004432 0.005188 -0.003580 -0.003553 0.002928 0.004854 -0.001225 0.003305 -0.004078 -0.004074 0.001069 -0.007673 0.004450 -0.002850 -0.007208 0.007420 0.005413 -0.007028 0.001998 -0.002477 0.003945 -0.003327
12 -0.007487 -0.006461 0.000734 -0.005455 -0.004133 -0.002887 -0.005039 -0.007241 -0.004787 0.005245 0.007472 0.007930 -0.001857 0.003738 0.000486 0.005294 -0.007075 0.002303 0.004846 -0.007232 0.002988 0.006151 0.002956 -0.003983 -0.007267 -0.003172 0.004247 0.002267 0.000977 -0.001017 0.003448 0.003090 -0.007724 0.002328 0.002331 0.005420 -0.002137 0.004986 0.000124 0.003881 0.000034 -0.000366 0.003974 -0.002142 -0.002151 0.007461 0.003480 -0.001789 -0.006460 -0.002806 -0.003331 0.003651 -0.001464 -0.007562 -0.006450 -0.006570 0.000931 0.001038 -0.000241 0.003160 0.005229 0.002989 -0.005202 0.004523
28 -0.006453 -0.005362 0.007761 0.000532 -0.000072 0.006119 0.000923 -0.002028 -0.005412 -0.000623 0.003060 0.005510 -0.000719 0.005182 -0.004488 -0.000974 -0.001562 -0.004173 0.004524 0.003636 -0.006974 -0.000429 -0.000741 -0.001900 -0.003781 0.005327 -0.006756 0.002702 0.006833 -0.000804 -0.001444 0.006330 0.003936 0.006656 0.000815 -0.006766 0.004657 0.002890 0.002997 0.001775 -0.002791 -0.005930 0.004435 0.005496 -0.006527 -0.004849 -0.007433 -0.001649 -0.006909 -0.004759 -0.007589 0.001196 0.004266 -0.005255 0.006729 -0.000715 -0.005777 -0.005872 -0.007337 0.000569 -0.000324 -0.004426 0.005280 0.004539
30 0.006450 -0.006602 -0.006470 0.007508 -0.007411 0.002677 0.005532 -0.003438 -0.000869 0.003603 -0.007661 -0.000196 -0.002458 -0.003536 -0.003527 -0.005002 0.002278 -0.000825 -0.007525 0.007139 0.001920 -0.004079 0.007442 -0.007487 0.002900 -0.004323 0.005595 -0.000416 -0.006550 0.003826 -0.001124 -0.004998 0.001964 -0.003559 -0.004629 0.005967 0.000512 0.005494 0.001969 -0.006774 0.000364 0.002805 0.002378 0.006680 0.000603 0.001334 0.000273 -0.006066 -0.001336 0.003065 -0.000963 0.004818 0.003999 -0.007662 0.004457 0.002415 -0.007687 0.002452 0.004542 0.000971 0.001889 -0.006201 0.006273 0.001721
9 -0.002332 0.001004 -0.006596 -0.001853 0.000143 0.000039 -0.001011 0.003810 0.007449 -0.001148 0.001599 0.006214 0.000881 -0.007223 -0.002180 -0.001882 -0.003600 0.005312 -0.003804 0.002594 -0.007113 0.006565 0.007584 -0.007217 -0.002997 0.004866 -0.003121 -0.007493 -0.001807 0.003822 0.002552 0.006745 -0.004186 -0.004359 0.007222 -0.004334 0.006153 -0.000185 -0.007109 0.005654 -0.006752 -0.006942 0.002905 0.006239 -0.005617 -0.004112 0.000401 -0.004360 -0.003682 -0.007461 -0.004999 0.001778 -0.004822 0.001616 0.006666 -0.002349 -0.003330 -0.000475 -0.001609 -0.004454 0.000416 -0.000662 -0.005729 0.003361
22 0.004995 -0.003821 -0.001618 0.000185 -0.001132 -0.005285 -0.002092 -0.002258 -0.004816 -0.002293 -0.002733 0.002318 0.004246 -0.004071 0.004531 -0.002661 -0.005298 -0.002285 0.007371 0.006533 0.005129 -0.000605 0.006707 0.000895 -0.006039 0.006814 -0.002077 -0.007724 0.003852 0.005249 -0.000144 -0.005182 -0.005828 0.000175 -0.002400 -0.005530 -0.001763 -0.002895 -0.004554 -0.005997 0.006999 -0.007293 -0.006060 0.005814 0.004329 0.007681 -0.006722 0.004726 0.005530 -0.003529 -0.004812 -0.004149 -0.006724 -0.002902 0.006829 0.001219 0.005341 0.006278 0.004154 -0.006066 0.003256 0.003163 0.003648 0.006602
14 -0.003291 -0.004648 0.007503 -0.006162 0.004069 0.002658 -0.004347 -0.002671 -0.004240 0.004084 -0.007562 0.003386 -0.002824 -0.000623 0.000260 0.002647 0.004328 -0.000131 0.001713 -0.004575 0.005180 0.007650 -0.000343 0.004455 -0.002543 0.003778 0.005761 0.007713 -0.007065 0.005940 0.003898 0.002296 -0.002676 0.005868 0.004923 -0.002743 -0.002844 -0.000026 -0.002494 -0.000474 -0.006666 0.000534 0.003495 0.004724 -0.000608 0.002061 0.002213 0.004607 0.000036 0.007329 -0.002940 -0.000174 -0.002226 0.004337 0.000292 -0.002932 -0.006332 0.007393 -0.005270 -0.004015 -0.000654 -0.005887 0.004734 -0.006574
26 0.006286 0.004336 0.001610 -0.002614 0.003376 -0.004401 0.003670 -0.003138 -0.007676 -0.003378 -0.002698 -0.006483 0.006783 -0.005747 -0.002301 0.005131 0.003069 -0.000270 -0.002681 0.002874 0.006999 0.001702 0.006485 0.003935 -0.003856 -0.003501 -0.007458 -0.004704 -0.003845 0.006157 0.004218 0.001565 0.002460 -0.006961 -0.007218 -0.006250 0.003610 -0.002640 -0.002971 -0.002425 -0.000785 -0.006453 -0.005981 -0.002273 -0.003678 0.007911 -0.006691 -0.000017 -0.003211 0.005904 0.006497 0.004369 -0.003293 -0.006103 0.000188 -0.001420 0.003048 0.002123 -0.006433 0.001115 0.003648 -0.003427 0.001132 0.007059
11 -0.006362 -0.005192 0.002886 0.002464 0.004037 -0.003131 -0.005596 0.006595 0.005251 -0.006325 -0.001304 0.001757 -0.004191 0.004569 0.007368 -0.006643 -0.002877 -0.001545 0.000943 -0.006233 0.005166 -0.002105 0.004753 0.001206 -0.002284 -0.004423 -0.003676 0.000691 -0.005196 -0.005590 0.004176 -0.001031 0.004539 -0.007266 0.003801 0.006835 0.007163 0.004975 0.000213 0.006967 0.004835 0.005569 0.007318 -0.000623 -0.002794 0.004574 0.005941 0.005425 -0.002884 0.003488 0.003192 0.001828 -0.000019 -0.000082 -0.000456 -0.005479 0.001681 0.005151 -0.007530 0.002259 -0.000437 -0.004724 0.007445 0.005527
15 -0.007144 -0.004589 0.005440 -0.006179 0.001889 0.007453 0.003841 -0.007120 0.000180 -0.002820 0.003108 -0.000693 0.000487 0.003039 0.003258 -0.002843 -0.005756 -0.004031 -0.005798 -0.006886 0.006487 0.003788 0.000654 0.002199 -0.006042 0.000228 -0.004834 -0.000321 0.000822 -0.005565 -0.004407 0.004124 0.006213 -0.001271 0.000833 0.000097 -0.003526 -0.000163 0.007416 0.002853 -0.005397 0.000036 -0.001563 0.000526 0.005333 0.007091 -0.007608 -0.001338 -0.001696 -0.003241 -0.000798 0.000433 -0.001098 0.003578 -0.005458 -0.007469 -0.007808 -0.007265 0.002017 0.005736 0.006579 0.006445 0.001277 -0.006609
18 0.002695 0.000593 -0.006548 -0.002196 0.003440 -0.002041 -0.006942 0.003790 0.005236 0.007774 -0.001520 0.005521 0.006164 -0.000715 0.002006 -0.006704 -0.002786 0.003254 -0.005913 0.007430 0.007654 -0.001001 0.007752 0.001180 0.006517 0.006747 0.001247 -0.000204 0.003568 0.002497 -0.000086 0.004835 0.002776 0.004873 0.003643 -0.004004 -0.002602 -0.000722 0.002219 0.006294 -0.002464 0.007576 -0.006393 -0.002848 -0.001854 0.005657 -0.007019 0.000711 0.003275 -0.003880 -0.000733 -0.006183 0.006241 0.006848 -0.001189 0.007024 0.001326 -0.007188 -0.003712 -0.002433 0.003663 -0.007240 0.000197 -0.001163
20 -0.001053 -0.003011 0.000017 0.001690 -0.005653 -0.007223 0.006901 0.003630 -0.005688 -0.003080 -0.004516 -0.005313 0.007834 -0.001070 -0.002811 -0.001685 -0.005889 0.002655 -0.002669 -0.006123 0.004334 -0.003477 0.005335 0.000674 0.003000 0.005695 0.007625 -0.001945 0.002452 -0.006314 -0.005893 -0.002448 0.002081 -0.001832 0.005210 0.003506 0.007299 -0.005700 -0.005260 -0.007870 -0.007060 -0.004193 -0.004984 0.000298 0.003631 -0.000112 0.006460 0.000586 0.002208 -0.005538 -0.007343 0.000543 0.004959 -0.007016 -0.001529 0.001269 0.000650 -0.007453 -0.006350 0.004478 0.007833 0.003153 0.002670 0.002527
16 -0.000864 0.002679 0.001650 0.000220 -0.002124 -0.000500 0.004957 -0.001929 0.000288 0.001392 -0.004610 0.003240 -0.003466 0.006099 0.006136 -0.004495 -0.007130 -0.007880 -0.007591 -0.006826 -0.001197 0.002529 0.004923 -0.002593 0.003040 0.000781 0.002438 -0.001011 -0.002680 -0.007021 -0.005411 0.003896 -0.002359 -0.007297 0.003286 0.003342 0.007266 -0.005902 -0.004568 -0.007530 -0.004669 0.006573 0.004710 0.000568 0.003750 -0.002687 0.004342 0.005515 -0.005616 0.007644 0.005839 0.001733 0.001503 0.003434 0.003169 0.000472 -0.000513 0.001180 0.001144 -0.006810 0.004367 -0.007632 -0.002515 -0.007255
